digraph Tree {
node [shape=box] ;
0 [label="av4 <= 1412.147\nmse = 4744.3608\nsamples = 20631\nvalue = 107.8079"] ;
1 [label="av21 <= 23.3532\nmse = 3421.6947\nsamples = 14522\nvalue = 137.014"] ;
0 -> 1 [labeldistance=2.5, labelangle=45, headlabel="True"] ;
2 [label="av9 <= 9066.1201\nmse = 2863.7533\nsamples = 8745\nvalue = 119.68"] ;
1 -> 2 ;
3 [label="av4 <= 1409.469\nmse = 2730.966\nsamples = 6780\nvalue = 131.4317"] ;
2 -> 3 ;
4 [label="av9 <= 9060.4014\nmse = 2794.1685\nsamples = 4974\nvalue = 138.3255"] ;
3 -> 4 ;
5 [label="av8 <= 2388.071\nmse = 2709.3821\nsamples = 3613\nvalue = 142.9734"] ;
4 -> 5 ;
6 [label="sd12 <= 0.618\nmse = 3500.2641\nsamples = 687\nvalue = 157.0291"] ;
5 -> 6 ;
7 [label="mse = 3432.6089\nsamples = 685\nvalue = 156.5562"] ;
6 -> 7 ;
8 [label="mse = 361.0\nsamples = 2\nvalue = 319.0"] ;
6 -> 8 ;
9 [label="av14 <= 8128.9141\nmse = 2466.4127\nsamples = 2926\nvalue = 139.6733"] ;
5 -> 9 ;
10 [label="mse = 2091.4722\nsamples = 982\nvalue = 152.7627"] ;
9 -> 10 ;
11 [label="mse = 2525.5441\nsamples = 1944\nvalue = 133.0612"] ;
9 -> 11 ;
12 [label="av11 <= 47.471\nmse = 2809.6545\nsamples = 1361\nvalue = 125.9868"] ;
4 -> 12 ;
13 [label="av12 <= 521.691\nmse = 3093.1679\nsamples = 831\nvalue = 139.6161"] ;
12 -> 13 ;
14 [label="mse = 1971.5607\nsamples = 244\nvalue = 125.9713"] ;
13 -> 14 ;
15 [label="mse = 3449.8302\nsamples = 587\nvalue = 145.2879"] ;
13 -> 15 ;
16 [label="av15 <= 8.4296\nmse = 1617.2024\nsamples = 530\nvalue = 104.617"] ;
12 -> 16 ;
17 [label="mse = 2060.4289\nsamples = 108\nvalue = 129.1574"] ;
16 -> 17 ;
18 [label="mse = 1310.1996\nsamples = 422\nvalue = 98.3365"] ;
16 -> 18 ;
19 [label="av11 <= 47.593\nmse = 2065.5194\nsamples = 1806\nvalue = 112.4452"] ;
3 -> 19 ;
20 [label="av14 <= 8137.4258\nmse = 2131.8488\nsamples = 993\nvalue = 122.3978"] ;
19 -> 20 ;
21 [label="sd4 <= 2.8434\nmse = 2136.5611\nsamples = 691\nvalue = 132.4616"] ;
20 -> 21 ;
22 [label="mse = 1981.1165\nsamples = 208\nvalue = 147.6346"] ;
21 -> 22 ;
23 [label="mse = 2061.6656\nsamples = 483\nvalue = 125.9275"] ;
21 -> 23 ;
24 [label="av9 <= 9062.1465\nmse = 1359.0876\nsamples = 302\nvalue = 99.3709"] ;
20 -> 24 ;
25 [label="mse = 1533.4605\nsamples = 190\nvalue = 106.7053"] ;
24 -> 25 ;
26 [label="mse = 817.2092\nsamples = 112\nvalue = 86.9286"] ;
24 -> 26 ;
27 [label="av3 <= 1589.7203\nmse = 1715.7479\nsamples = 813\nvalue = 100.2891"] ;
19 -> 27 ;
28 [label="sd14 <= 2.0628\nmse = 1705.3949\nsamples = 138\nvalue = 123.4928"] ;
27 -> 28 ;
29 [label="mse = 2455.6224\nsamples = 25\nvalue = 155.24"] ;
28 -> 29 ;
30 [label="mse = 1267.0986\nsamples = 113\nvalue = 116.469"] ;
28 -> 30 ;
31 [label="av15 <= 8.4514\nmse = 1585.285\nsamples = 675\nvalue = 95.5452"] ;
27 -> 31 ;
32 [label="mse = 1669.236\nsamples = 337\nvalue = 106.2582"] ;
31 -> 32 ;
33 [label="mse = 1273.0643\nsamples = 338\nvalue = 84.8639"] ;
31 -> 33 ;
34 [label="av9 <= 9077.5293\nmse = 1201.2985\nsamples = 1965\nvalue = 79.1323"] ;
2 -> 34 ;
35 [label="av15 <= 8.4281\nmse = 1266.228\nsamples = 1285\nvalue = 90.7875"] ;
34 -> 35 ;
36 [label="av20 <= 38.937\nmse = 1336.5745\nsamples = 447\nvalue = 111.2125"] ;
35 -> 36 ;
37 [label="av9 <= 9067.6963\nmse = 1135.613\nsamples = 302\nvalue = 102.6854"] ;
36 -> 37 ;
38 [label="mse = 1897.1346\nsamples = 74\nvalue = 123.2027"] ;
37 -> 38 ;
39 [label="mse = 707.4818\nsamples = 228\nvalue = 96.0263"] ;
37 -> 39 ;
40 [label="av12 <= 522.295\nmse = 1288.2751\nsamples = 145\nvalue = 128.9724"] ;
36 -> 40 ;
41 [label="mse = 1019.8359\nsamples = 131\nvalue = 123.8931"] ;
40 -> 41 ;
42 [label="mse = 1299.8214\nsamples = 14\nvalue = 176.5"] ;
40 -> 42 ;
43 [label="av14 <= 8147.0049\nmse = 887.4753\nsamples = 838\nvalue = 79.8926"] ;
35 -> 43 ;
44 [label="av7 <= 553.349\nmse = 1290.3421\nsamples = 341\nvalue = 92.0323"] ;
43 -> 44 ;
45 [label="mse = 578.9983\nsamples = 144\nvalue = 77.125"] ;
44 -> 45 ;
46 [label="mse = 1529.132\nsamples = 197\nvalue = 102.9289"] ;
44 -> 46 ;
47 [label="av8 <= 2388.0911\nmse = 440.5719\nsamples = 497\nvalue = 71.5634"] ;
43 -> 47 ;
48 [label="mse = 403.1006\nsamples = 314\nvalue = 78.4459"] ;
47 -> 48 ;
49 [label="mse = 284.1308\nsamples = 183\nvalue = 59.7541"] ;
47 -> 49 ;
50 [label="av9 <= 9093.0117\nmse = 336.7958\nsamples = 680\nvalue = 57.1074"] ;
34 -> 50 ;
51 [label="av15 <= 8.4326\nmse = 290.4526\nsamples = 438\nvalue = 64.7671"] ;
50 -> 51 ;
52 [label="av3 <= 1590.79\nmse = 276.321\nsamples = 140\nvalue = 79.3786"] ;
51 -> 52 ;
53 [label="mse = 208.1964\nsamples = 113\nvalue = 83.5221"] ;
52 -> 53 ;
54 [label="mse = 188.8505\nsamples = 27\nvalue = 62.037"] ;
52 -> 54 ;
55 [label="av11 <= 47.539\nmse = 149.6717\nsamples = 298\nvalue = 57.9027"] ;
51 -> 55 ;
56 [label="mse = 147.2347\nsamples = 139\nvalue = 63.4101"] ;
55 -> 56 ;
57 [label="mse = 102.1055\nsamples = 159\nvalue = 53.0881"] ;
55 -> 57 ;
58 [label="s9 <= 9118.4648\nmse = 122.2835\nsamples = 242\nvalue = 43.2438"] ;
50 -> 58 ;
59 [label="av11 <= 47.455\nmse = 83.821\nsamples = 178\nvalue = 47.5449"] ;
58 -> 59 ;
60 [label="mse = 59.4898\nsamples = 56\nvalue = 54.2143"] ;
59 -> 60 ;
61 [label="mse = 65.2006\nsamples = 122\nvalue = 44.4836"] ;
59 -> 61 ;
62 [label="av14 <= 8200.8516\nmse = 34.7021\nsamples = 64\nvalue = 31.2812"] ;
58 -> 62 ;
63 [label="mse = 15.7883\nsamples = 39\nvalue = 34.8205"] ;
62 -> 63 ;
64 [label="mse = 14.1824\nsamples = 25\nvalue = 25.76"] ;
62 -> 64 ;
65 [label="av9 <= 9072.7559\nmse = 3122.935\nsamples = 5777\nvalue = 163.2536"] ;
1 -> 65 ;
66 [label="av11 <= 47.2037\nmse = 2990.2314\nsamples = 5406\nvalue = 167.4784"] ;
65 -> 66 ;
67 [label="av7 <= 554.491\nmse = 1746.2619\nsamples = 1404\nvalue = 188.9858"] ;
66 -> 67 ;
68 [label="av9 <= 9054.4062\nmse = 1557.6305\nsamples = 686\nvalue = 177.3338"] ;
67 -> 68 ;
69 [label="av15 <= 8.3903\nmse = 1019.5365\nsamples = 77\nvalue = 211.3896"] ;
68 -> 69 ;
70 [label="mse = 601.91\nsamples = 20\nvalue = 241.3"] ;
69 -> 70 ;
71 [label="mse = 742.024\nsamples = 57\nvalue = 200.8947"] ;
69 -> 71 ;
72 [label="av21 <= 23.4064\nmse = 1460.4836\nsamples = 609\nvalue = 173.0279"] ;
68 -> 72 ;
73 [label="mse = 1425.3812\nsamples = 248\nvalue = 162.3266"] ;
72 -> 73 ;
74 [label="mse = 1351.8809\nsamples = 361\nvalue = 180.3795"] ;
72 -> 74 ;
75 [label="av9 <= 9055.6055\nmse = 1672.8342\nsamples = 718\nvalue = 200.1184"] ;
67 -> 75 ;
76 [label="av13 <= 2387.999\nmse = 1251.6584\nsamples = 165\nvalue = 219.9091"] ;
75 -> 76 ;
77 [label="mse = 1145.7399\nsamples = 58\nvalue = 241.8103"] ;
76 -> 77 ;
78 [label="mse = 908.1294\nsamples = 107\nvalue = 208.0374"] ;
76 -> 78 ;
79 [label="av14 <= 8147.8589\nmse = 1646.7682\nsamples = 553\nvalue = 194.2134"] ;
75 -> 79 ;
80 [label="mse = 1371.7683\nsamples = 442\nvalue = 187.5452"] ;
79 -> 80 ;
81 [label="mse = 1859.7289\nsamples = 111\nvalue = 220.7658"] ;
79 -> 81 ;
82 [label="av14 <= 8139.2051\nmse = 3207.4343\nsamples = 4002\nvalue = 159.933"] ;
66 -> 82 ;
83 [label="av3 <= 1583.6279\nmse = 3957.1156\nsamples = 1353\nvalue = 176.4102"] ;
82 -> 83 ;
84 [label="sd14 <= 1.4335\nmse = 5268.002\nsamples = 142\nvalue = 204.2746"] ;
83 -> 84 ;
85 [label="mse = 4365.1468\nsamples = 27\nvalue = 270.037"] ;
84 -> 85 ;
86 [label="mse = 4226.2249\nsamples = 115\nvalue = 188.8348"] ;
84 -> 86 ;
87 [label="av9 <= 9059.9473\nmse = 3701.6848\nsamples = 1211\nvalue = 173.1429"] ;
83 -> 87 ;
88 [label="mse = 3561.4452\nsamples = 1159\nvalue = 171.088"] ;
87 -> 88 ;
89 [label="mse = 4635.7082\nsamples = 52\nvalue = 218.9423"] ;
87 -> 89 ;
90 [label="av13 <= 2388.0137\nmse = 2615.0319\nsamples = 2649\nvalue = 151.5172"] ;
82 -> 90 ;
91 [label="av11 <= 47.257\nmse = 1787.1876\nsamples = 841\nvalue = 166.2675"] ;
90 -> 91 ;
92 [label="mse = 1865.0431\nsamples = 500\nvalue = 176.664"] ;
91 -> 92 ;
93 [label="mse = 1282.1637\nsamples = 341\nvalue = 151.0235"] ;
91 -> 93 ;
94 [label="av9 <= 9067.8496\nmse = 2851.8263\nsamples = 1808\nvalue = 144.656"] ;
90 -> 94 ;
95 [label="mse = 3017.5289\nsamples = 1560\nvalue = 147.525"] ;
94 -> 95 ;
96 [label="mse = 1432.0285\nsamples = 248\nvalue = 126.6089"] ;
94 -> 96 ;
97 [label="av9 <= 9076.1973\nmse = 1006.7951\nsamples = 371\nvalue = 101.6927"] ;
65 -> 97 ;
98 [label="av11 <= 47.201\nmse = 1102.3535\nsamples = 189\nvalue = 118.7566"] ;
97 -> 98 ;
99 [label="sd2 <= 0.1506\nmse = 2581.5789\nsamples = 19\nvalue = 172.0"] ;
98 -> 99 ;
100 [label="sd7 <= 0.4453\nmse = 105.5556\nsamples = 3\nvalue = 270.3333"] ;
99 -> 100 ;
101 [label="mse = 25.0\nsamples = 2\nvalue = 277.0"] ;
100 -> 101 ;
102 [label="mse = 0.0\nsamples = 1\nvalue = 257.0"] ;
100 -> 102 ;
103 [label="av8 <= 2387.9971\nmse = 892.8711\nsamples = 16\nvalue = 153.5625"] ;
99 -> 103 ;
104 [label="mse = 65.2344\nsamples = 8\nvalue = 128.625"] ;
103 -> 104 ;
105 [label="mse = 476.75\nsamples = 8\nvalue = 178.5"] ;
103 -> 105 ;
106 [label="av15 <= 8.4184\nmse = 584.78\nsamples = 170\nvalue = 112.8059"] ;
98 -> 106 ;
107 [label="av14 <= 8153.4062\nmse = 517.3896\nsamples = 123\nvalue = 120.0244"] ;
106 -> 107 ;
108 [label="mse = 451.2764\nsamples = 63\nvalue = 128.8413"] ;
107 -> 108 ;
109 [label="mse = 419.4789\nsamples = 60\nvalue = 110.7667"] ;
107 -> 109 ;
110 [label="av2 <= 642.528\nmse = 267.9077\nsamples = 47\nvalue = 93.9149"] ;
106 -> 110 ;
111 [label="mse = 186.4898\nsamples = 35\nvalue = 89.2857"] ;
110 -> 111 ;
112 [label="mse = 260.5764\nsamples = 12\nvalue = 107.4167"] ;
110 -> 112 ;
113 [label="av14 <= 8162.9443\nmse = 291.1806\nsamples = 182\nvalue = 83.9725"] ;
97 -> 113 ;
114 [label="sd13 <= 0.0441\nmse = 245.2594\nsamples = 137\nvalue = 89.2628"] ;
113 -> 114 ;
115 [label="sd12 <= 0.2413\nmse = 180.0596\nsamples = 129\nvalue = 87.1008"] ;
114 -> 115 ;
116 [label="mse = 182.0098\nsamples = 44\nvalue = 96.3864"] ;
115 -> 116 ;
117 [label="mse = 111.3135\nsamples = 85\nvalue = 82.2941"] ;
115 -> 117 ;
118 [label="sd21 <= 0.0461\nmse = 5.8594\nsamples = 8\nvalue = 124.125"] ;
114 -> 118 ;
119 [label="mse = 0.0\nsamples = 1\nvalue = 130.0"] ;
118 -> 119 ;
120 [label="mse = 1.0612\nsamples = 7\nvalue = 123.2857"] ;
118 -> 120 ;
121 [label="av7 <= 553.988\nmse = 86.3822\nsamples = 45\nvalue = 67.8667"] ;
113 -> 121 ;
122 [label="av17 <= 393.8\nmse = 28.3488\nsamples = 18\nvalue = 60.3889"] ;
121 -> 122 ;
123 [label="mse = 11.1834\nsamples = 17\nvalue = 61.4118"] ;
122 -> 123 ;
124 [label="mse = 0.0\nsamples = 1\nvalue = 43.0"] ;
122 -> 124 ;
125 [label="av9 <= 9093.0977\nmse = 62.941\nsamples = 27\nvalue = 72.8519"] ;
121 -> 125 ;
126 [label="mse = 24.0454\nsamples = 21\nvalue = 76.381"] ;
125 -> 126 ;
127 [label="mse = 2.9167\nsamples = 6\nvalue = 60.5"] ;
125 -> 127 ;
128 [label="av11 <= 47.779\nmse = 1040.6544\nsamples = 6109\nvalue = 38.3804"] ;
0 -> 128 [labeldistance=2.5, labelangle=-45, headlabel="False"] ;
129 [label="av9 <= 9075.2041\nmse = 1090.7176\nsamples = 2687\nvalue = 61.6464"] ;
128 -> 129 ;
130 [label="av11 <= 47.643\nmse = 1155.9346\nsamples = 1866\nvalue = 71.6238"] ;
129 -> 130 ;
131 [label="av15 <= 8.4528\nmse = 1591.9511\nsamples = 638\nvalue = 91.3197"] ;
130 -> 131 ;
132 [label="av14 <= 8140.6309\nmse = 1648.4339\nsamples = 331\nvalue = 104.7644"] ;
131 -> 132 ;
133 [label="sd12 <= 0.0806\nmse = 1765.625\nsamples = 244\nvalue = 113.4549"] ;
132 -> 133 ;
134 [label="mse = 821.8889\nsamples = 6\nvalue = 194.3333"] ;
133 -> 134 ;
135 [label="mse = 1620.3522\nsamples = 238\nvalue = 111.416"] ;
133 -> 135 ;
136 [label="av9 <= 9068.208\nmse = 513.8703\nsamples = 87\nvalue = 80.3908"] ;
132 -> 136 ;
137 [label="mse = 471.5242\nsamples = 57\nvalue = 88.1404"] ;
136 -> 137 ;
138 [label="mse = 263.4222\nsamples = 30\nvalue = 65.6667"] ;
136 -> 138 ;
139 [label="av14 <= 8126.877\nmse = 1126.0407\nsamples = 307\nvalue = 76.8241"] ;
131 -> 139 ;
140 [label="av2 <= 642.915\nmse = 1053.1756\nsamples = 44\nvalue = 106.2273"] ;
139 -> 140 ;
141 [label="mse = 876.9834\nsamples = 32\nvalue = 117.2188"] ;
140 -> 141 ;
142 [label="mse = 341.7431\nsamples = 12\nvalue = 76.9167"] ;
140 -> 142 ;
143 [label="av20 <= 38.829\nmse = 969.394\nsamples = 263\nvalue = 71.9049"] ;
139 -> 143 ;
144 [label="mse = 793.7825\nsamples = 249\nvalue = 69.4016"] ;
143 -> 144 ;
145 [label="mse = 1998.9592\nsamples = 14\nvalue = 116.4286"] ;
143 -> 145 ;
146 [label="av7 <= 552.861\nmse = 623.1453\nsamples = 1228\nvalue = 61.3909"] ;
130 -> 146 ;
147 [label="av12 <= 521.174\nmse = 472.7498\nsamples = 678\nvalue = 53.6681"] ;
146 -> 147 ;
148 [label="av13 <= 2388.1611\nmse = 422.5349\nsamples = 637\nvalue = 51.8728"] ;
147 -> 148 ;
149 [label="mse = 485.0059\nsamples = 325\nvalue = 57.8154"] ;
148 -> 149 ;
150 [label="mse = 282.3576\nsamples = 312\nvalue = 45.6827"] ;
148 -> 150 ;
151 [label="s14 <= 8141.5254\nmse = 424.8316\nsamples = 41\nvalue = 81.561"] ;
147 -> 151 ;
152 [label="mse = 298.834\nsamples = 27\nvalue = 91.4074"] ;
151 -> 152 ;
153 [label="mse = 120.2449\nsamples = 14\nvalue = 62.5714"] ;
151 -> 153 ;
154 [label="av2 <= 642.632\nmse = 644.3902\nsamples = 550\nvalue = 70.9109"] ;
146 -> 154 ;
155 [label="sd4 <= 4.493\nmse = 1078.0622\nsamples = 15\nvalue = 116.2667"] ;
154 -> 155 ;
156 [label="mse = 114.8889\nsamples = 9\nvalue = 94.6667"] ;
155 -> 156 ;
157 [label="mse = 773.2222\nsamples = 6\nvalue = 148.6667"] ;
155 -> 157 ;
158 [label="av21 <= 23.2666\nmse = 572.9372\nsamples = 535\nvalue = 69.6393"] ;
154 -> 158 ;
159 [label="mse = 520.8988\nsamples = 423\nvalue = 66.6147"] ;
158 -> 159 ;
160 [label="mse = 604.4336\nsamples = 112\nvalue = 81.0625"] ;
158 -> 160 ;
161 [label="s9 <= 9103.915\nmse = 201.993\nsamples = 821\nvalue = 38.9695"] ;
129 -> 161 ;
162 [label="av11 <= 47.631\nmse = 157.6885\nsamples = 579\nvalue = 44.544"] ;
161 -> 162 ;
163 [label="s14 <= 8161.4102\nmse = 104.0815\nsamples = 106\nvalue = 53.8868"] ;
162 -> 163 ;
164 [label="av3 <= 1589.644\nmse = 111.377\nsamples = 53\nvalue = 59.0189"] ;
163 -> 164 ;
165 [label="mse = 66.9136\nsamples = 9\nvalue = 69.5556"] ;
164 -> 165 ;
166 [label="mse = 93.1178\nsamples = 44\nvalue = 56.8636"] ;
164 -> 166 ;
167 [label="av11 <= 47.561\nmse = 44.1096\nsamples = 53\nvalue = 48.7547"] ;
163 -> 167 ;
168 [label="mse = 39.2449\nsamples = 14\nvalue = 54.5714"] ;
167 -> 168 ;
169 [label="mse = 29.3504\nsamples = 39\nvalue = 46.6667"] ;
167 -> 169 ;
170 [label="av9 <= 9091.1152\nmse = 145.757\nsamples = 473\nvalue = 42.4503"] ;
162 -> 170 ;
171 [label="av12 <= 520.88\nmse = 168.6018\nsamples = 346\nvalue = 44.5289"] ;
170 -> 171 ;
172 [label="mse = 103.8966\nsamples = 112\nvalue = 38.1518"] ;
171 -> 172 ;
173 [label="mse = 170.7904\nsamples = 234\nvalue = 47.5812"] ;
171 -> 173 ;
174 [label="av11 <= 47.745\nmse = 39.6792\nsamples = 127\nvalue = 36.7874"] ;
170 -> 174 ;
175 [label="mse = 22.5528\nsamples = 85\nvalue = 38.8118"] ;
174 -> 175 ;
176 [label="mse = 49.2613\nsamples = 42\nvalue = 32.6905"] ;
174 -> 176 ;
177 [label="s14 <= 8202.0254\nmse = 55.7614\nsamples = 242\nvalue = 25.6322"] ;
161 -> 177 ;
178 [label="av12 <= 520.939\nmse = 36.3536\nsamples = 158\nvalue = 29.2532"] ;
177 -> 178 ;
179 [label="av9 <= 9113.7012\nmse = 15.2084\nsamples = 70\nvalue = 25.6143"] ;
178 -> 179 ;
180 [label="mse = 16.1402\nsamples = 37\nvalue = 27.5405"] ;
179 -> 180 ;
181 [label="mse = 5.3388\nsamples = 33\nvalue = 23.4545"] ;
179 -> 181 ;
182 [label="av14 <= 8183.9111\nmse = 34.2623\nsamples = 88\nvalue = 32.1477"] ;
178 -> 182 ;
183 [label="mse = 22.7017\nsamples = 47\nvalue = 35.0213"] ;
182 -> 183 ;
184 [label="mse = 27.1981\nsamples = 41\nvalue = 28.8537"] ;
182 -> 184 ;
185 [label="av8 <= 2388.063\nmse = 21.2181\nsamples = 84\nvalue = 18.8214"] ;
177 -> 185 ;
186 [label="av11 <= 47.639\nmse = 10.2899\nsamples = 24\nvalue = 24.0417"] ;
185 -> 186 ;
187 [label="mse = 4.2041\nsamples = 14\nvalue = 26.2857"] ;
186 -> 187 ;
188 [label="mse = 1.89\nsamples = 10\nvalue = 20.9"] ;
186 -> 188 ;
189 [label="s14 <= 8224.4941\nmse = 10.3289\nsamples = 60\nvalue = 16.7333"] ;
185 -> 189 ;
190 [label="mse = 5.7003\nsamples = 31\nvalue = 18.9032"] ;
189 -> 190 ;
191 [label="mse = 4.8633\nsamples = 29\nvalue = 14.4138"] ;
189 -> 191 ;
192 [label="av11 <= 47.923\nmse = 242.5533\nsamples = 3422\nvalue = 20.1116"] ;
128 -> 192 ;
193 [label="av9 <= 9102.832\nmse = 218.5821\nsamples = 1617\nvalue = 30.9357"] ;
192 -> 193 ;
194 [label="av12 <= 520.781\nmse = 206.5559\nsamples = 1301\nvalue = 34.1514"] ;
193 -> 194 ;
195 [label="av11 <= 47.849\nmse = 158.156\nsamples = 1041\nvalue = 31.3487"] ;
194 -> 195 ;
196 [label="av2 <= 642.96\nmse = 180.7476\nsamples = 498\nvalue = 35.2088"] ;
195 -> 196 ;
197 [label="mse = 229.1979\nsamples = 94\nvalue = 43.1596"] ;
196 -> 197 ;
198 [label="mse = 151.344\nsamples = 404\nvalue = 33.3589"] ;
196 -> 198 ;
199 [label="av7 <= 552.315\nmse = 111.2377\nsamples = 543\nvalue = 27.8085"] ;
195 -> 199 ;
200 [label="mse = 81.1305\nsamples = 319\nvalue = 25.4013"] ;
199 -> 200 ;
201 [label="mse = 134.1092\nsamples = 224\nvalue = 31.2366"] ;
199 -> 201 ;
202 [label="av4 <= 1415.598\nmse = 242.9647\nsamples = 260\nvalue = 45.3731"] ;
194 -> 202 ;
203 [label="av12 <= 521.034\nmse = 255.9894\nsamples = 103\nvalue = 53.0291"] ;
202 -> 203 ;
204 [label="mse = 238.0221\nsamples = 79\nvalue = 49.4937"] ;
203 -> 204 ;
205 [label="mse = 138.5556\nsamples = 24\nvalue = 64.6667"] ;
203 -> 205 ;
206 [label="av9 <= 9081.5156\nmse = 170.7371\nsamples = 157\nvalue = 40.3503"] ;
202 -> 206 ;
207 [label="mse = 176.505\nsamples = 116\nvalue = 43.0603"] ;
206 -> 207 ;
208 [label="mse = 74.8507\nsamples = 41\nvalue = 32.6829"] ;
206 -> 208 ;
209 [label="av14 <= 8190.707\nmse = 50.2368\nsamples = 316\nvalue = 17.6962"] ;
193 -> 209 ;
210 [label="av2 <= 643.317\nmse = 30.682\nsamples = 150\nvalue = 22.7733"] ;
209 -> 210 ;
211 [label="av14 <= 8180.1113\nmse = 25.9226\nsamples = 107\nvalue = 24.4019"] ;
210 -> 211 ;
212 [label="mse = 25.4617\nsamples = 46\nvalue = 27.1957"] ;
211 -> 212 ;
213 [label="mse = 15.9457\nsamples = 61\nvalue = 22.2951"] ;
211 -> 213 ;
214 [label="sd21 <= 0.0333\nmse = 19.5035\nsamples = 43\nvalue = 18.7209"] ;
210 -> 214 ;
215 [label="mse = 2.0\nsamples = 5\nvalue = 27.0"] ;
214 -> 215 ;
216 [label="mse = 11.6011\nsamples = 38\nvalue = 17.6316"] ;
214 -> 216 ;
217 [label="s9 <= 9173.0\nmse = 23.5666\nsamples = 166\nvalue = 13.1084"] ;
209 -> 217 ;
218 [label="av15 <= 8.4849\nmse = 16.7775\nsamples = 131\nvalue = 14.6489"] ;
217 -> 218 ;
219 [label="mse = 10.9749\nsamples = 52\nvalue = 17.5769"] ;
218 -> 219 ;
220 [label="mse = 11.2389\nsamples = 79\nvalue = 12.7215"] ;
218 -> 220 ;
221 [label="av14 <= 8260.2051\nmse = 6.8539\nsamples = 35\nvalue = 7.3429"] ;
217 -> 221 ;
222 [label="mse = 2.8205\nsamples = 29\nvalue = 8.2759"] ;
221 -> 222 ;
223 [label="mse = 1.8056\nsamples = 6\nvalue = 2.8333"] ;
221 -> 223 ;
224 [label="av11 <= 48.029\nmse = 65.045\nsamples = 1805\nvalue = 10.415"] ;
192 -> 224 ;
225 [label="av9 <= 9123.9766\nmse = 60.1433\nsamples = 961\nvalue = 14.8824"] ;
224 -> 225 ;
226 [label="av12 <= 520.24\nmse = 57.7821\nsamples = 791\nvalue = 16.3869"] ;
225 -> 226 ;
227 [label="av15 <= 8.5032\nmse = 30.8842\nsamples = 407\nvalue = 13.1229"] ;
226 -> 227 ;
228 [label="mse = 30.0777\nsamples = 240\nvalue = 14.825"] ;
227 -> 228 ;
229 [label="mse = 21.8954\nsamples = 167\nvalue = 10.6766"] ;
227 -> 229 ;
230 [label="av14 <= 8150.7441\nmse = 63.0311\nsamples = 384\nvalue = 19.8464"] ;
226 -> 230 ;
231 [label="mse = 65.8789\nsamples = 226\nvalue = 22.2035"] ;
230 -> 231 ;
232 [label="mse = 39.6418\nsamples = 158\nvalue = 16.4747"] ;
230 -> 232 ;
233 [label="s9 <= 9171.1992\nmse = 11.5979\nsamples = 170\nvalue = 7.8824"] ;
225 -> 233 ;
234 [label="av11 <= 47.965\nmse = 9.2406\nsamples = 140\nvalue = 8.7286"] ;
233 -> 234 ;
235 [label="mse = 5.8367\nsamples = 56\nvalue = 10.8571"] ;
234 -> 235 ;
236 [label="mse = 6.4756\nsamples = 84\nvalue = 7.3095"] ;
234 -> 236 ;
237 [label="s13 <= 2388.1548\nmse = 3.6622\nsamples = 30\nvalue = 3.9333"] ;
233 -> 237 ;
238 [label="mse = 1.3006\nsamples = 23\nvalue = 4.7826"] ;
237 -> 238 ;
239 [label="mse = 1.2653\nsamples = 7\nvalue = 1.1429"] ;
237 -> 239 ;
240 [label="av4 <= 1427.301\nmse = 22.0262\nsamples = 844\nvalue = 5.3282"] ;
224 -> 240 ;
241 [label="av20 <= 38.499\nmse = 22.7524\nsamples = 501\nvalue = 7.3433"] ;
240 -> 241 ;
242 [label="av3 <= 1596.301\nmse = 13.8979\nsamples = 259\nvalue = 5.2008"] ;
241 -> 242 ;
243 [label="mse = 14.0\nsamples = 5\nvalue = 17.0"] ;
242 -> 243 ;
244 [label="mse = 11.1014\nsamples = 254\nvalue = 4.9685"] ;
242 -> 244 ;
245 [label="av15 <= 8.5003\nmse = 22.0579\nsamples = 242\nvalue = 9.6364"] ;
241 -> 245 ;
246 [label="mse = 22.1416\nsamples = 69\nvalue = 12.942"] ;
245 -> 246 ;
247 [label="mse = 15.9278\nsamples = 173\nvalue = 8.3179"] ;
245 -> 247 ;
248 [label="av3 <= 1598.8989\nmse = 6.3708\nsamples = 343\nvalue = 2.3848"] ;
240 -> 248 ;
249 [label="av7 <= 551.917\nmse = 13.6544\nsamples = 44\nvalue = 5.0682"] ;
248 -> 249 ;
250 [label="mse = 6.859\nsamples = 41\nvalue = 4.3415"] ;
249 -> 250 ;
251 [label="mse = 0.6667\nsamples = 3\nvalue = 15.0"] ;
249 -> 251 ;
252 [label="av11 <= 48.059\nmse = 4.0835\nsamples = 299\nvalue = 1.99"] ;
248 -> 252 ;
253 [label="mse = 6.7776\nsamples = 29\nvalue = 4.3448"] ;
252 -> 253 ;
254 [label="mse = 3.1346\nsamples = 270\nvalue = 1.737"] ;
252 -> 254 ;
}